svm_type c_svc
kernel_type rbf
gamma 0.03125
nr_class 3
total_sv 112
rho 4.31139 5.58168 -0.576192
label 1 2 3
nr_sv 56 30 26
SV
0 128 1:-0.350052 2:-0.431844 3:-0.89482 4:-0.400083 5:-0.586697 6:-0.505125 7:-0.935555 8:-0.430151 
0 128 1:-0.480913 2:-0.301097 3:-0.937129 4:-0.233902 5:-0.508697 6:-0.498463 7:-0.96645 8:-0.346573 
103.0382231132743 0 1:-0.516511 2:-0.595265 3:-0.632158 4:-0.685811 5:-0.658154 6:-0.845222 7:-0.706946 8:-0.90502 
0 128 1:-0.629134 2:-0.571423 3:-0.885554 4:-0.568508 5:-0.811345 6:-0.872831 7:-0.9306 8:-0.866597 
0 128 1:-0.722741 2:-0.319006 3:-0.947805 4:-0.414157 5:-0.757374 6:-0.889865 7:-0.836381 8:-0.913649 
0 128 1:-0.663396 2:-0.60581 3:-0.8891 4:-0.646061 5:-0.747082 6:-0.876654 7:-0.863748 8:-0.857893 
0 128 1:-0.640055 2:-0.666202 3:-0.783926 4:-0.721309 5:-0.830405 6:-0.892023 7:-0.951796 8:-0.86394 
0 128 1:-0.700221 2:-0.603896 3:-0.821148 4:-0.601321 5:-0.686856 6:-0.821086 7:-0.794597 8:-0.856228 
128 128 1:-0.575732 2:-0.692846 3:-0.64929 4:-0.761646 5:-0.783051 6:-0.893642 7:-0.871113 8:-0.875528 
128 0 1:-0.604174 2:-0.802144 3:-0.439738 4:-0.999039 5:-0.587631 6:-0.847562 7:-0.588741 8:-0.957755 
0 128 1:-0.67443 2:-0.57623 3:-0.81556 4:-0.619964 5:-0.64012 6:-0.717408 7:-0.843117 8:-0.747431 
0 128 1:-0.531088 2:-0.413022 3:-0.842981 4:-0.295134 5:-0.592821 6:-0.649546 7:-0.975647 8:-0.57086 
0 25.66145577934625 1:-0.46536 2:-0.476832 3:-0.807252 4:-0.476199 5:-0.659831 6:-0.649216 7:-0.872989 8:-0.648966 
128 0 1:0.242934 2:-0.303394 3:0.414329 4:-0.783939 5:-0.819308 6:-0.87506 7:-0.881119 8:-0.815726 
0 128 1:-0.293636 2:-0.0637242 3:-0.926233 4:-0.179158 5:-0.564654 6:-0.603458 7:-0.959108 8:-0.609629 
128 0 1:-0.181402 2:-0.212957 3:-0.535529 4:-0.245109 5:-0.243896 6:-0.576689 7:-0.664064 8:-0.629444 
0 128 1:-0.780976 2:-0.843763 3:-0.859608 4:-0.845675 5:-0.784008 6:-0.849531 7:-0.926702 8:-0.771429 
128 0 1:-0.252442 2:-0.123305 3:-0.898059 4:0.0561219 5:-0.662932 6:-0.796635 7:-0.91302 8:-0.761206 
128 0 1:-0.986285 2:-1 3:-0.935537 4:-0.978433 5:-0.525098 6:-0.833644 7:-0.501397 8:-0.993769 
128 0 1:-0.185463 2:-0.097637 3:-0.707086 4:-0.0275389 5:-0.67288 6:-0.792168 7:-0.803999 8:-0.790408 
128 0 1:-0.56115 2:-0.670792 3:-0.733229 4:-0.67505 5:-0.575899 6:-0.793916 7:-0.791715 8:-0.842107 
128 0 1:-0.18518 2:-0.50347 3:-0.0255482 4:-0.817973 5:-0.403302 6:-0.767017 7:-0.453192 8:-0.923305 
128 0 1:-0.106508 2:-0.0104205 3:-0.848629 4:0.130563 5:-0.501775 6:-0.637049 7:-0.880972 8:-0.645739 
0 128 1:-0.384793 2:-0.395612 3:-0.929138 4:-0.526649 5:-0.529839 6:-0.686899 7:-0.964379 8:-0.606247 
0 128 1:-0.553075 2:-0.48382 3:-0.887545 4:-0.338477 5:-0.673053 6:-0.819472 7:-0.931978 8:-0.801806 
128 0 1:0.570191 2:0.506723 3:-0.180958 4:0.550913 5:0.187149 6:-0.172395 7:-0.412658 8:-0.137667 
0 8.450807566674197 1:-0.503571 2:-0.436887 3:-0.898977 4:-0.308796 5:-0.720241 6:-0.823501 7:-0.820039 8:-0.839385 
0 17.76125595477858 1:-0.333916 2:-0.172502 3:-0.583867 4:-0.20105 5:-0.165983 6:1 7:-0.769733 8:1 
128 0 1:-0.15064 2:-0.205081 3:-0.596298 4:-0.202219 5:-0.640803 6:-0.860972 7:-0.641401 8:-0.959138 
0 128 1:-0.69856 2:-0.644045 3:-0.88468 4:-0.695942 5:-0.672969 6:-0.485412 7:-0.906482 8:-0.539629 
128 0 1:-0.0213126 2:0.516561 3:-0.812913 4:0.705426 5:-0.28999 6:-0.469661 7:-0.867376 8:-0.311552 
0 128 1:-0.704891 2:-0.686016 3:-0.770185 4:-0.730803 5:-0.741479 6:-0.861965 7:-0.893919 8:-0.861872 
0 128 1:-0.539231 2:-0.336241 3:-0.961632 4:-0.433593 5:-0.545786 6:-0.631068 7:-0.95754 8:-0.574581 
128 0 1:-0.808858 2:-0.860053 3:-0.818785 4:-0.825861 5:-0.683391 6:-0.887761 7:-0.674439 8:-0.969254 
0 128 1:-0.524763 2:-0.488876 3:-0.756814 4:-0.631325 5:-0.733879 6:-0.795458 7:-0.920827 8:-0.794044 
128 0 1:-0.627099 2:-0.683198 3:-0.655556 4:-0.75051 5:-0.468302 6:-0.789405 7:-0.555281 8:-0.908468 
128 0 1:-0.27274 2:-0.333163 3:-0.418561 4:-0.300166 5:-0.383097 6:-0.679158 7:-0.516625 8:-0.744533 
0 128 1:-0.450785 2:-0.492146 3:-0.737962 4:-0.500341 5:-0.720183 6:-0.670446 7:-0.913636 8:-0.674633 
58.09425137905908 0 1:-0.183628 2:-0.177714 3:-0.698586 4:-0.185891 5:-0.593162 6:-0.729641 7:-0.934841 8:-0.727549 
0 82.49671082121046 1:-0.382119 2:-0.177741 3:-0.973656 4:-0.223901 5:-0.5971 6:-0.635406 7:-0.847889 8:-0.706737 
128 0 1:0.0601468 2:-0.354087 3:0.176611 4:-0.683866 5:-0.630375 6:-0.825595 7:-0.728538 8:-0.822052 
128 0 1:-0.394802 2:-0.346942 3:-0.818363 4:-0.222929 5:-0.476686 6:-0.781501 7:-0.555131 8:-0.912706 
61.39382761361954 107.4215304750323 1:-0.902395 2:-0.961616 3:-0.814762 4:-1 5:-0.702546 6:-0.903864 7:-0.671072 8:-1 
0 128 1:-0.447421 2:-0.422614 3:-0.768649 4:-0.418406 5:-0.727266 6:-0.778858 7:-0.910277 8:-0.770759 
128 87.65532720250921 1:-0.358814 2:-0.395546 3:-0.577749 4:-0.493665 5:-0.838854 6:-0.914594 7:-0.873642 8:-0.923119 
128 0 1:-0.391907 2:-0.601125 3:-0.37934 4:-0.703215 5:-0.19489 6:-0.691138 7:-0.215769 8:-0.940407 
44.6396771411511 0 1:0.312568 2:0.196551 3:-0.643718 4:0.239128 5:-0.306693 6:-0.340219 7:-0.856758 8:-0.239417 
0 128 1:-0.616446 2:-0.4103 3:-0.894191 4:-0.450386 5:-0.667202 6:-0.590259 7:-0.919106 8:-0.587937 
128 0 1:-0.39085 2:-0.550016 3:-0.446038 4:-0.721765 5:-0.772427 6:-0.842363 7:-0.87345 8:-0.832692 
0 128 1:-0.408252 2:-0.29795 3:-0.876182 4:-0.257086 5:-0.659077 6:-0.814882 7:-0.924284 8:-0.780752 
128 0 1:-0.256762 2:-0.353821 3:-0.552414 4:-0.369759 5:-0.74772 6:-0.820826 7:-0.924021 8:-0.746275 
0 128 1:-0.704955 2:-0.759181 3:-0.768558 4:-0.746811 5:-0.860007 6:-0.919633 7:-0.88292 8:-0.887778 
128 0 1:-0.0951205 2:-0.410087 3:-0.0824327 4:-0.59321 5:-0.27197 6:-0.638453 7:-0.501126 8:-0.649562 
34.73905505853314 0 1:-0.651289 2:-0.717291 3:-0.70763 4:-0.731732 5:-0.530615 6:-0.776896 7:-0.588846 8:-0.894648 
5.499746285301073 0 1:0.419276 2:1 3:-0.637104 4:0.880409 5:0.415937 6:0.0664455 7:-0.655139 8:0.175001 
128 0 1:-0.368999 2:-0.163115 3:-0.862842 4:0.232426 5:-0.781016 6:-0.881953 7:-0.874761 8:-0.852982 
-128 0 1:-0.751747 2:-0.767358 3:-0.893658 4:-0.616052 5:-0.499186 6:-0.794698 7:-0.549622 8:-0.89161 
-128 128 1:-0.408767 2:-0.527412 3:-0.699485 4:-0.531515 5:-0.413753 6:-0.725518 7:-0.769284 8:-0.688948 
-128 128 1:-0.575682 2:-0.735567 3:-0.665993 4:-0.780987 5:-0.834812 6:-0.923793 7:-0.906275 8:-0.901509 
-0 7.878175716600524 1:0.330577 2:-0.17289 3:0.392695 4:-0.626522 5:-0.768727 6:-0.883734 7:-0.950994 8:-0.820947 
-28.58439680485278 0 1:0.485566 2:0.6627 3:-0.760101 4:1 5:-0.324103 6:-0.545843 7:-0.714278 8:-0.575919 
-128 128 1:-0.668658 2:-0.640623 3:-0.913059 4:-0.495659 5:-0.687036 6:-0.85919 7:-0.836967 8:-0.822151 
-128 0 1:-0.221152 2:-0.211034 3:-0.497963 4:-0.179879 5:-0.474067 6:-0.794187 7:-0.529872 8:-0.931348 
-128 0 1:-0.0982466 2:-0.216733 3:-0.344987 4:-0.354132 5:-0.32175 6:-0.686236 7:-0.480112 8:-0.833102 
-128 0 1:0.179674 2:0.0804752 3:-0.849137 4:0.384005 5:0.0650782 6:-0.335606 7:-0.767069 8:-0.127873 
-128 0 1:-0.360782 2:-0.359041 3:-0.811267 4:-0.259398 5:-0.338967 6:-0.712679 7:-0.471308 8:-0.851093 
-128 128 1:-0.595875 2:-0.592491 3:-0.722156 4:-0.574021 5:-0.795989 6:-0.913422 7:-0.793313 8:-0.945371 
-128 5.599045112323856 1:-0.652286 2:-0.819551 3:-0.519878 4:-0.971132 5:-0.55076 6:-0.838581 7:-0.539214 8:-0.976254 
-128 0 1:-0.302673 2:-0.459282 3:-0.696313 4:-0.343248 5:-0.673981 6:-0.862591 7:-0.765805 8:-0.87831 
-128 0 1:0.0660862 2:0.372432 3:-0.81593 4:0.784143 5:-0.552456 6:-0.724184 7:-0.898156 8:-0.685125 
-128 128 1:-0.318163 2:-0.361626 3:-0.666292 4:-0.410876 5:-0.563462 6:-0.771281 7:-0.952227 8:-0.692564 
-128 0 1:0.360487 2:0.63566 3:-0.291951 4:0.65786 5:-0.41919 6:-0.662171 7:-0.823093 8:-0.58961 
-16.70676316686008 0 1:0.616021 2:0.569194 3:-0.547704 4:0.802163 5:0.0316657 6:-0.368169 7:-0.931039 8:-0.118181 
-128 0 1:0.133125 2:-0.281476 3:0.327897 4:-0.695897 5:-0.870289 6:-0.949184 7:-0.860827 8:-0.951616 
-128 0 1:0.14939 2:-0.263648 3:0.0798213 4:-0.547484 5:-0.376615 6:-0.693727 7:-0.56508 8:-0.757285 
-128 0 1:-0.284557 2:-0.532902 3:-0.269877 4:-0.666384 5:-0.20003 6:-0.68269 7:-0.247352 8:-0.903599 
-128 0 1:-0.775637 2:-0.852912 3:-0.797588 4:-0.852928 5:-0.446819 6:-0.792085 7:-0.441895 8:-0.966735 
-128 77.55457626980515 1:-0.0966081 2:0.0480866 3:-0.517423 4:0.382745 5:-0.304276 6:-0.353441 7:-0.86427 8:-0.00586759 
-128 0 1:-0.456298 2:-0.655647 3:-0.351919 4:-0.86191 5:-0.45513 6:-0.768684 7:-0.548118 8:-0.888344 
-128 128 1:-0.32894 2:-0.61561 3:-0.186503 4:-0.865425 5:-0.718931 6:-0.90185 7:-0.70836 8:-0.970589 
-128 0 1:0.140943 2:-0.239342 3:-0.157489 4:-0.332124 5:-0.749321 6:-0.888087 7:-0.798395 8:-0.90507 
-128 128 1:-0.713687 2:-0.587895 3:-0.95577 4:-0.345637 5:-0.665538 6:-0.815628 7:-0.739717 8:-0.815045 
-6.113620619225395 0 1:0.538134 2:-0.19268 3:1 4:-1 5:1 6:-0.247074 7:1 8:-1 
-128 0 1:0.013688 2:-0.392024 3:0.106565 4:-0.749534 5:-0.819958 6:-0.940289 7:-0.827349 8:-0.95969 
-128 128 1:-0.590625 2:-0.509707 3:-0.729295 4:-0.499985 5:-0.603732 6:-0.795487 7:-0.801442 8:-0.809107 
-128 128 1:-0.764596 2:-0.812671 3:-0.794961 4:-0.822582 5:-0.686332 6:-0.882012 7:-0.709918 8:-0.953406 
-128 -0 1:-0.391507 2:-0.402716 3:-0.898671 4:-0.455997 5:-0.307897 6:-0.580543 7:-0.883478 8:-0.519186 
-128 -0 1:-0.766612 2:-0.65179 3:-0.987004 4:-0.533332 5:-0.768969 6:-0.779677 7:-0.977864 8:-0.660443 
-128 -128 1:-0.518505 2:-0.721482 3:-0.539152 4:-0.827168 5:-0.568642 6:-0.778422 7:-0.71104 8:-0.785284 
-128 -128 1:-0.389735 2:-0.498664 3:-0.813803 4:-0.364555 5:-0.452881 6:-0.660775 7:-0.887839 8:-0.549968 
-128 -0 1:-0.438466 2:0.158735 3:-1 4:0.0417616 5:-0.423519 6:0.151992 7:-0.992036 8:-0.0155288 
-128 -102.6486594580718 1:-0.476457 2:-0.0885999 3:-0.954881 4:-0.23204 5:-0.637383 6:-0.64982 7:-0.966031 8:-0.66192 
-73.44708779955103 -0 1:-0.64719 2:-0.345175 3:-0.949907 4:-0.355855 5:-0.799069 6:-0.629926 7:-0.987177 8:-0.620452 
-128 -0 1:-0.680409 2:-0.282546 3:-0.966788 4:-0.518043 5:-0.747315 6:-0.737932 7:-0.959696 8:-0.81842 
-128 -128 1:-0.31802 2:-0.248971 3:-0.705255 4:-0.327568 5:-0.247518 6:-0.519258 7:-0.719038 8:-0.576677 
-128 -0 1:-0.678123 2:-0.469057 3:-0.946559 4:-0.527324 5:-0.774893 6:-0.729537 7:-0.999746 8:-0.748503 
-128 -116.3831376406578 1:-0.606572 2:-0.539097 3:-0.891907 4:-0.526167 5:-0.774474 6:-0.837924 7:-0.965975 8:-0.79307 
-128 -0 1:-0.619884 2:-0.612387 3:-0.942592 4:-0.586639 5:-0.805343 6:-0.822133 7:-0.959773 8:-0.809093 
-128 -128 1:-0.71975 2:-0.714527 3:-0.915964 4:-0.623367 5:-0.712178 6:-0.832915 7:-0.909169 8:-0.787757 
-128 -0 1:-0.68018 2:-0.687791 3:-0.948559 4:-0.696578 5:-0.824584 6:-0.864627 7:-0.970373 8:-0.858752 
-128 -128 1:-0.303329 2:-0.641842 3:-0.0600645 4:-1 5:-0.920894 6:-0.988096 7:-0.885384 8:-1 
-128 -0 1:-0.608085 2:-0.316229 3:-0.901943 4:-0.431915 5:-0.801502 6:-0.757554 7:-0.988398 8:-0.741239 
-128 -0 1:-0.75957 2:-0.684675 3:-0.97809 4:-0.666291 5:-0.813539 6:-0.858487 7:-0.927491 8:-0.864011 
-128 -0 1:-0.603168 2:-0.440944 3:-0.888921 4:-0.42893 5:-0.789952 6:-0.757703 7:-0.967737 8:-0.731607 
-128 -128 1:-0.663193 2:-0.7092 3:-0.807579 4:-0.692482 5:-0.7607 6:-0.906913 7:-0.797435 8:-0.939304 
-128 -0 1:-0.562309 2:-0.464769 3:-0.887718 4:-0.515599 5:-0.818781 6:-0.82829 7:-0.985562 8:-0.765955 
-128 -128 1:-0.45678 2:-0.383328 3:-0.801876 4:-0.339088 5:-0.667339 6:-0.632398 7:-0.934992 8:-0.595812 
-128 -128 1:-0.726569 2:-0.832402 3:-0.676709 4:-0.880747 5:-0.892252 6:-0.955894 7:-0.911089 8:-0.925358 
-128 -0 1:-0.571866 2:-0.51709 3:-0.880757 4:-0.500608 5:-0.696998 6:-0.671296 7:-0.978947 8:-0.657654 
-128 -0 1:-0.678973 2:-0.663517 3:-0.919334 4:-0.665229 5:-0.851245 6:-0.900419 7:-0.954203 8:-0.873285 
-128 -0 1:-0.575006 2:-0.480476 3:-0.960291 4:-0.471872 5:-0.804659 6:-0.776395 7:-0.974074 8:-0.752525 
-128 -0 1:-0.596845 2:-0.564574 3:-0.939991 4:-0.62847 5:-0.744082 6:-0.828133 7:-0.972428 8:-0.810692 
