svm_type c_svc
kernel_type rbf
gamma 0.0078125
nr_class 3
total_sv 32
rho 3.47855 -27.9587 -9.83353
label 2 3 1
nr_sv 11 8 13
SV
0 2048 1:-0.656235 2:-0.59385 3:-0.734468 4:-0.499985 5:-0.617509 6:-0.806833 7:-0.801442 8:-0.692912 
0 74.5907661293295 1:-0.0734745 2:-0.222034 3:-0.97421 4:0.139311 5:-0.0851307 6:-0.527153 7:-0.571716 8:-0.234145 
0 49.07328281039513 1:-0.356406 2:-0.537286 3:-0.701388 4:-0.343248 5:-0.688361 6:-0.874361 7:-0.765805 8:-0.804239 
0 795.4861101050672 1:0.0275639 2:0.395685 3:-0.821363 4:0.784143 5:-0.565792 6:-0.735079 7:-0.898156 8:-0.493463 
0 227.5666841493437 1:0.334108 2:0.69096 3:-0.295816 4:0.65786 5:-0.431381 6:-0.672675 7:-0.823093 8:-0.339809 
0 648.6365933615295 1:-0.416912 2:-0.424841 3:-0.816686 4:-0.259398 5:-0.350469 6:-0.723501 7:-0.471308 8:-0.760455 
0 2048 1:-0.661702 2:-0.686712 3:-0.727309 4:-0.574021 5:-0.811417 6:-0.925513 7:-0.793313 8:-0.912118 
0 0.7889300432610643 1:0.464346 2:0.721292 3:-0.765367 4:1 5:-0.335477 6:-0.555611 7:-0.714278 8:-0.317785 
2048 1278.909054013211 1:-0.737487 2:-0.740704 3:-0.918782 4:-0.495659 5:-0.701529 6:-0.870938 7:-0.836967 8:-0.713896 
0 2048 1:-0.466877 2:-0.613711 3:-0.704569 4:-0.531515 5:-0.425898 6:-0.736422 7:-0.769284 8:-0.499614 
1016.796327699026 1422.829222040657 1:-0.640677 2:-0.847207 3:-0.670977 4:-0.780987 5:-0.850574 6:-0.93595 7:-0.906275 8:-0.841558 
-0 1741.376511165449 1:-0.724103 2:-0.557236 3:-0.987885 4:-0.558039 5:-0.839486 6:-0.787001 7:-0.974074 8:-0.681012 
-857.8804990673464 2048 1:-0.51687 2:-0.452085 3:-0.807267 4:-0.339088 5:-0.681662 6:-0.642713 7:-0.934992 8:-0.349786 
-1852.951382359223 0 1:-0.898831 2:-0.891252 3:-0.917879 4:-0.793247 5:-0.927555 6:-0.925233 7:-0.97559 8:-0.829951 
-353.9644462724562 2048 1:-0.691898 2:-0.440512 3:-0.895071 4:-0.534131 5:-0.786734 6:-0.840041 7:-0.979228 8:-0.732146 
-0 2048 1:-0.167216 2:0.0984674 3:-0.91222 4:0.105117 5:-0.419413 6:-0.455414 7:-0.965803 8:0.0582621 
-0 2048 1:-0.657706 2:-0.121475 3:-0.972672 4:-0.341176 5:-0.710935 6:-0.528858 7:-0.987177 8:-0.403824 
-0 214.6114435308925 1:-0.767646 2:-0.376817 3:-0.956149 4:-0.552606 5:-0.852083 6:-0.76866 7:-0.988398 8:-0.680467 
-0 2048 1:-0.612689 2:-0.473833 3:-0.992948 4:-0.417635 5:-0.524964 6:-0.590531 7:-0.977864 8:-0.187822 
-0 -352.2609177388261 1:-0.205495 2:0.555433 3:-0.904769 4:0.295754 5:-0.407374 6:-0.181681 7:-0.919106 8:0.219934 
-0 -185.337454324292 1:-0.488914 2:-0.356313 3:-0.881795 4:-0.448631 5:-0.683956 6:-0.8046 7:-0.924284 8:-0.645447 
-2048 -0 1:-0.6501 2:-0.41127 3:-0.902302 4:-0.416042 5:-0.577751 6:-0.792759 7:-0.704011 8:-0.751992 
-2048 -1441.83294703389 1:-0.507125 2:-0.496154 3:-0.77394 4:-0.418406 5:-0.742103 6:-0.790099 7:-0.910277 8:-0.631222 
-2048 -0 1:-0.414862 2:-0.46579 3:-0.582469 4:-0.493665 5:-0.85465 6:-0.926693 7:-0.873642 8:-0.876322 
-0 -2048 1:-0.562898 2:-0.221438 3:-0.956394 4:-0.179111 5:-0.680276 6:-0.740571 7:-0.952708 8:-0.546055 
-0 -2048 1:-0.605881 2:-0.215595 3:-0.971693 4:-0.323697 5:-0.548927 6:-0.494798 7:-0.906482 8:-0.326124 
-0 -2048 1:-0.693793 2:-0.399266 3:-0.967501 4:-0.52354 5:-0.649757 6:-0.641375 7:-0.95754 8:-0.446898 
-401.880642652794 -973.1788053253231 1:-0.623176 2:-0.570483 3:-0.76207 4:-0.655174 5:-0.659488 6:-0.800713 7:-0.920827 8:-0.60557 
-2048 -0 1:-0.471384 2:-0.599272 3:-0.80454 4:-0.393402 5:-0.620285 6:-0.844994 7:-0.690493 8:-0.833426 
-0 -1051.377830274009 1:-0.388214 2:-0.225044 3:-0.930668 4:-0.0779519 5:-0.618572 6:-0.472087 7:-0.887781 8:-0.259184 
-2048 -0 1:-0.579938 2:-0.557807 3:-0.813129 4:-0.521464 5:-0.489558 6:-0.610513 7:-0.804972 8:-0.414249 
-0 -2048 1:-0.475973 2:-0.377034 3:-0.900489 4:-0.411415 5:-0.590854 6:-0.514636 7:-0.935555 8:-0.225075 
