svm_type c_svc
kernel_type rbf
gamma 0.0078125
nr_class 3
total_sv 114
rho 2.04783 -13.2255 -44.2566
label 2 3 1
nr_sv 24 35 55
SV
2048 2048 1:-0.603909 2:-0.5539 3:-0.729573 4:-0.499985 5:-0.600432 6:-0.791517 7:-0.801671 8:-0.778569 
2048 2048 1:-0.779333 2:-0.865732 3:-0.79525 4:-0.822582 5:-0.682862 6:-0.877851 7:-0.710135 8:-0.945952 
0 2048 1:-0.164267 2:-0.608203 3:0.12713 4:-1 5:-0.0458706 6:-0.647719 7:-0.0287836 8:-1 
0 1733.514464783533 1:-0.106919 2:-0.362505 3:-0.586526 4:-0.19821 5:0.166108 6:-0.485143 7:-0.011993 8:-0.738234 
1651.477496984367 2048 1:-0.727998 2:-0.634377 3:-0.956085 4:-0.345637 5:-0.662111 6:-0.811614 7:-0.739938 8:-0.785457 
0 2048 1:0.00545101 2:-0.432772 3:0.106421 4:-0.749534 5:-0.816214 6:-0.935998 7:-0.827581 8:-0.953242 
75.10845357742841 0 1:-0.105766 2:0.0202217 3:-0.517668 4:0.382745 5:-0.301592 6:-0.350448 7:-0.864507 8:0.153168 
2048 2048 1:-0.46846 2:-0.704112 3:-0.352137 4:-0.86191 5:-0.452136 6:-0.764773 7:-0.548314 8:-0.870482 
537.5331515193009 2048 1:-0.340038 2:-0.662903 3:-0.186694 4:-0.865425 5:-0.715394 6:-0.897645 7:-0.708577 8:-0.965884 
0 694.7938680936084 1:0.133769 2:-0.275621 3:-0.157676 4:-0.332124 5:-0.745722 6:-0.883912 7:-0.798624 8:-0.889884 
2048 2048 1:-0.635517 2:-0.827473 3:-0.577247 4:-0.878729 5:-0.632713 6:-0.857729 7:-0.641256 8:-0.948974 
0 1578.669562809047 1:0.125886 2:-0.318988 3:0.327788 4:-0.695897 5:-0.866441 6:-0.944874 7:-0.861063 8:-0.943876 
0 766.5278438646537 1:0.142286 2:-0.300638 3:0.0796731 4:-0.547484 5:-0.373782 6:-0.689981 7:-0.565279 8:-0.718457 
0 2048 1:-0.295285 2:-0.577774 3:-0.270081 4:-0.666384 5:-0.197561 6:-0.67897 7:-0.247511 8:-0.888177 
0 2048 1:-0.313552 2:-0.501999 3:-0.696586 4:-0.343248 5:-0.670537 6:-0.858472 7:-0.76603 8:-0.858843 
2048 2048 1:-0.329171 2:-0.401484 3:-0.66656 4:-0.410876 5:-0.560245 6:-0.767365 7:-0.952475 8:-0.643382 
55.25869272202404 2048 1:0.172823 2:0.0535585 3:-0.849435 4:0.384005 5:0.0670019 6:-0.332653 7:-0.767293 8:0.0116445 
2048 2048 1:-0.609203 2:-0.639107 3:-0.722434 4:-0.574021 5:-0.792293 6:-0.909191 7:-0.793541 8:-0.936631 
1857.88467874575 2048 1:0.151486 2:0.278654 3:-0.303406 4:0.0442785 5:-0.288308 6:-0.402279 7:-0.863047 8:-0.33289 
2048 2048 1:-0.666084 2:-0.872814 3:-0.520123 4:-0.971132 5:-0.54757 6:-0.834515 7:-0.539409 8:-0.972456 
0 2048 1:-0.731732 2:-0.853154 3:-0.85959 4:-0.755018 5:-0.427636 6:-0.787146 7:-0.42298 8:-0.976902 
0 2048 1:-0.107418 2:-0.25235 3:-0.345204 4:-0.354132 5:-0.31903 6:-0.682507 7:-0.4803 8:-0.806402 
0 2048 1:-0.766376 2:-0.819093 3:-0.893963 4:-0.616052 5:-0.496101 6:-0.79073 7:-0.549819 8:-0.874271 
184.8376855651605 0 1:0.324986 2:-0.207223 3:0.392598 4:-0.626522 5:-0.765088 6:-0.879568 7:-0.951242 8:-0.792303 
-363.092618278949 2048 1:-0.624511 2:-0.560435 3:-0.93629 4:-0.510823 5:-0.840642 6:-0.867756 7:-0.961137 8:-0.83399 
-0 2048 1:-0.592411 2:-0.650695 3:-0.88106 4:-0.643683 5:-0.725334 6:-0.81439 7:-0.903889 8:-0.77 
-0 2048 1:-0.618564 2:-0.561499 3:-0.877172 4:-0.481604 5:-0.716075 6:-0.6676 7:-0.979199 8:-0.57645 
-0 2048 1:-0.650728 2:-0.520304 3:-0.890285 4:-0.565543 5:-0.789877 6:-0.771853 7:-0.968979 8:-0.741459 
-0 2048 1:-0.568481 2:-0.523813 3:-0.982275 4:-0.415812 5:-0.755733 6:-0.772467 7:-0.960436 8:-0.681286 
-0 2048 1:-0.610981 2:-0.610373 3:-0.885267 4:-0.629615 5:-0.737961 6:-0.82409 7:-0.923298 8:-0.779542 
-0 1876.251405822982 1:-0.73731 2:-0.619986 3:-0.957465 4:-0.585761 5:-0.863089 6:-0.856461 7:-0.960762 8:-0.834064 
-0 2048 1:-0.427396 2:-0.378471 3:-0.711488 4:-0.432727 5:-0.547177 6:-0.650961 7:-0.931293 8:-0.445482 
-0 2048 1:-0.468946 2:-0.423822 3:-0.802166 4:-0.339088 5:-0.663908 6:-0.628788 7:-0.935238 8:-0.531152 
-2048 2048 1:-0.726984 2:-0.763014 3:-0.743134 4:-0.709365 5:-0.725546 6:-0.854008 7:-0.797332 8:-0.855249 
-0 2048 1:-0.563702 2:-0.717532 3:-0.710638 4:-0.710383 5:-0.616211 6:-0.809683 7:-0.898868 8:-0.728239 
-0 2048 1:-0.627369 2:-0.483124 3:-0.889225 4:-0.397899 5:-0.794558 6:-0.753817 7:-0.967988 8:-0.683332 
-0 2048 1:-0.555757 2:-0.507647 3:-0.888022 4:-0.519692 5:-0.802575 6:-0.824247 7:-0.985814 8:-0.730937 
-2048 2048 1:-0.522456 2:-0.413202 3:-0.814823 4:-0.389013 5:-0.750664 6:-0.824444 7:-0.859396 8:-0.782422 
-0 1646.102197097291 1:-0.764757 2:-0.733989 3:-0.978408 4:-0.649121 5:-0.812347 6:-0.854378 7:-0.927736 8:-0.833468 
-0 2048 1:0.00695566 2:0.0813455 3:-0.906824 4:0.1353 5:-0.327808 6:-0.443077 7:-0.966053 8:-0.172486 
-2048 2048 1:-0.542224 2:-0.562966 3:-0.834981 4:-0.454634 5:-0.634287 6:-0.797818 7:-0.931713 8:-0.686259 
-0 2048 1:-0.384357 2:-0.120466 3:-0.885147 4:-0.225622 5:-0.605607 6:-0.646171 7:-0.966281 8:-0.558067 
-0 2048 1:-0.653462 2:-0.361797 3:-0.955195 4:-0.354542 5:-0.711454 6:-0.75697 7:-0.923064 8:-0.684185 
-1951.007540835083 2048 1:-0.690309 2:-0.722897 3:-0.850449 4:-0.668188 5:-0.792768 6:-0.889672 7:-0.959945 8:-0.848739 
-0 2048 1:-0.767717 2:-0.744408 3:-0.967105 4:-0.732139 5:-0.719103 6:-0.81392 7:-0.906784 8:-0.808987 
-2048 2048 1:-0.620097 2:-0.320089 3:-0.9311 4:-0.337543 5:-0.718536 6:-0.734089 7:-0.914771 8:-0.758044 
-2048 2048 1:-0.249175 2:-0.285532 3:-0.70553 4:-0.300204 5:-0.116031 6:-0.515898 7:-0.450912 8:-0.652368 
-0 2048 1:-0.738075 2:-0.663446 3:-0.919607 4:-0.551612 5:-0.805409 6:-0.725713 7:-0.991297 8:-0.715406 
-0 2048 1:-0.614753 2:-0.51206 3:-0.827533 4:-0.543579 5:-0.765096 6:-0.802674 7:-1 8:-0.684793 
-0 2048 1:-0.701249 2:-0.584151 3:-0.946873 4:-0.496226 5:-0.766984 6:-0.83386 7:-0.966224 8:-0.785104 
-0 946.1226099108461 1:-0.626514 2:-0.64135 3:-0.858651 4:-0.585146 5:-0.793165 6:-0.760619 7:-0.989595 8:-0.685347 
-0 2048 1:-0.70329 2:-0.81007 3:-0.839137 4:-0.779608 5:-0.825604 6:-0.889226 7:-0.910015 8:-0.875771 
-0 2048 1:-0.548176 2:-0.569961 3:-0.97367 4:-0.482624 5:-0.779434 6:-0.816491 7:-0.971714 8:-0.796839 
-2048 2048 1:-0.295636 2:-0.669658 3:-0.0602351 4:-0.966833 5:-0.882244 6:-0.956933 7:-0.885623 8:-0.945097 
-0 2048 1:-0.645676 2:-0.450026 3:-0.837078 4:-0.553308 5:-0.761801 6:-0.803446 7:-0.964342 8:-0.789836 
-0 2048 1:-0.40759 2:-0.443777 3:-0.898977 4:-0.390455 5:-0.380992 6:-0.577048 7:-0.883717 8:-0.403491 
-0 2048 1:-0.603785 2:-0.707414 3:-0.921698 4:-0.604445 5:-0.609058 6:-0.774489 7:-0.95502 8:-0.635056 
-2048 2048 1:-0.071182 2:-0.542534 3:0.209159 4:-0.951013 5:-0.146281 6:-0.657103 7:-0.202393 8:-0.879614 
-2048 2048 1:-0.775342 2:-0.908645 3:-0.710995 4:-0.89348 5:-0.503064 6:-0.750907 7:-0.665076 8:-0.699885 
-2048 -0 1:-0.30414 2:-0.586112 3:-0.379562 4:-0.706758 5:-0.102063 6:-0.630554 7:-0.215923 8:-0.848444 
-1258.835986925336 -0 1:0.079736 2:0.318501 3:-0.792362 4:0.382227 5:-0.0741349 6:-0.20007 7:-0.760213 8:0.109856 
-0 -2048 1:-0.617244 2:-0.333012 3:-0.899394 4:-0.385641 5:-0.652463 6:-0.707642 7:-0.91935 8:-0.684502 
-0 -2048 1:-0.440315 2:-0.475808 3:-0.659806 4:-0.577008 5:-0.64499 6:-0.789303 7:-0.873688 8:-0.723082 
-0 -2048 1:-0.475388 2:-0.335944 3:-0.876484 4:-0.369961 5:-0.689667 6:-0.810869 7:-0.924529 8:-0.764013 
-2048 -0 1:0.0374556 2:-0.498292 3:0.379194 4:-1 5:-0.631681 6:-0.873672 7:-0.605023 8:-1 
-0 -2048 1:-0.708296 2:-0.904623 3:-0.552664 4:-1 5:-0.956226 6:-0.998852 7:-0.924266 8:-1 
-0 -2048 1:-0.729841 2:-0.810676 3:-0.78837 4:-0.770914 5:-0.733917 6:-0.851064 7:-0.883159 8:-0.781907 
-0 -631.044126158112 1:-0.0649702 2:0.0567375 3:-0.863142 4:0.190953 5:-0.154664 6:-0.320457 7:-0.874999 8:0.0122545 
-967.0608856255598 -0 1:-0.658882 2:-0.8777 3:-0.490919 4:-1 5:-0.475555 6:-0.813452 7:-0.451448 8:-1 
-0 -2048 1:-0.283147 2:-0.45623 3:-0.815054 4:-0.360187 5:-0.626742 6:-0.695474 7:-0.891138 8:-0.557498 
-1629.672548732727 -2048 1:-0.370161 2:-0.436397 3:-0.578003 4:-0.493665 5:-0.83507 6:-0.910361 7:-0.87388 8:-0.91082 
-2048 -0 1:0.0452982 2:-0.494019 3:0.388994 4:-1 5:-0.785855 6:-0.933138 7:-0.756679 8:-1 
-0 -2048 1:-0.54361 2:-0.535825 3:-0.901269 4:-0.504547 5:-0.675034 6:-0.666752 7:-0.913879 8:-0.627129 
-2048 -1950.54815290238 1:-0.514349 2:-0.798949 3:-0.310317 4:-1 5:-0.749817 6:-0.919238 7:-0.721229 8:-1 
-0 -2048 1:-0.635541 2:-0.356709 3:-0.950873 4:-0.353635 5:-0.698825 6:-0.725817 7:-0.952957 8:-0.628875 
-2048 -0 1:-0.208466 2:-0.212188 3:-0.69886 4:-0.0519612 5:-0.571818 6:-0.834871 7:-0.586343 8:-0.957407 
-2048 -0 1:-0.602145 2:-0.737299 3:-0.671112 4:-0.641249 5:-0.459402 6:-0.792145 7:-0.474009 8:-0.938149 
-1322.254478775714 -0 1:-0.216406 2:-0.15174 3:-0.914106 4:0.154306 5:-0.291117 6:-0.31408 7:-0.862681 8:-0.138146 
-1643.681839491504 -0 1:-0.594637 2:-0.842695 3:-0.41064 4:-1 5:-0.6391 6:-0.876533 7:-0.612321 8:-1 
-0 -2048 1:-0.751522 2:-0.73537 3:-0.961948 4:-0.708857 5:-0.749026 6:-0.857848 7:-0.957789 8:-0.809641 
-0 -2048 1:-0.501227 2:-0.375356 3:-0.819078 4:-0.457883 5:-0.486483 6:-0.627461 7:-0.876443 8:-0.534477 
-0 -2048 1:-0.571893 2:-0.532459 3:-0.757097 4:-0.655174 5:-0.641968 6:-0.785449 7:-0.921071 8:-0.71559 
-2048 -0 1:-0.452273 2:-0.531821 3:-0.81098 4:-0.433185 5:-0.313745 6:-0.630811 7:-0.714181 8:-0.625008 
-2048 -0 1:-0.609257 2:-0.799158 3:-0.602238 4:-0.821084 5:-0.369081 6:-0.752497 7:-0.413251 8:-0.920922 
-2048 -0 1:-0.319792 2:-0.547481 3:-0.405979 4:-0.678676 5:-0.506741 6:-0.763109 7:-0.685452 8:-0.777649 
-0 -2048 1:-0.535847 2:-0.603723 3:-0.920565 4:-0.505225 5:-0.784074 6:-0.835924 7:-0.956881 8:-0.759089 
-0 -67.24933511390896 1:-0.678907 2:-0.620245 3:-0.757398 4:-0.657214 5:-0.325577 6:1 7:-0.769958 8:1 
-2048 -0 1:-0.424897 2:-0.558874 3:-0.799447 4:-0.393402 5:-0.603179 6:-0.829354 7:-0.690708 8:-0.879889 
-0 -2048 1:-0.524199 2:-0.449538 3:-0.798836 4:-0.457962 5:-0.6745 6:-0.6818 7:-0.893401 8:-0.650602 
-0 -2048 1:-0.479447 2:-0.454385 3:-0.843278 4:-0.360586 5:-0.604328 6:-0.645569 7:-0.975898 8:-0.521444 
-0 -2048 1:-0.593205 2:-0.492989 3:-0.900069 4:-0.388308 5:-0.527041 6:-0.653916 7:-0.872583 8:-0.631875 
-0 -2048 1:-0.526976 2:-0.442961 3:-0.930129 4:-0.371638 5:-0.585743 6:-0.67089 7:-0.893215 8:-0.679021 
-2048 -2048 1:-0.295813 2:-0.23145 3:-0.92522 4:-0.020568 5:-0.743482 6:-0.848141 7:-0.88802 8:-0.853942 
-2048 -2048 1:-0.768965 2:-0.86152 3:-0.761743 4:-0.815582 5:-0.80037 6:-0.922301 7:-0.827082 8:-0.933617 
-2048 -0 1:0.0474681 2:-0.0696179 3:-0.535776 4:-0.0945324 5:-0.350148 6:-0.573202 7:-0.681237 8:-0.554243 
-2048 -0 1:-0.440098 2:-0.339378 3:-0.935848 4:-0.0919963 5:-0.312087 6:-0.587267 7:-0.586949 8:-0.598933 
-0 -2048 1:-0.535338 2:-0.392032 3:-0.916055 4:-0.424365 5:-0.52217 6:-0.667258 7:-0.833886 8:-0.577198 
-0 -1379.634476678877 1:-0.408497 2:-0.377525 3:-0.67704 4:-0.48518 5:-0.447969 6:-0.487893 7:-0.917006 8:-0.391887 
-2048 -0 1:-0.291799 2:-0.58838 3:-0.15322 4:-0.791939 5:0.115964 6:-0.497227 7:-0.159914 8:-0.653679 
-0 -440.0001219778424 1:-0.356396 2:-0.448013 3:-0.910715 4:-0.471887 5:-0.549666 6:-0.572156 7:-0.917232 8:-0.519191 
-2048 -0 1:-0.547867 2:-0.621225 3:-0.624941 4:-0.666719 5:-0.559712 6:-0.822217 7:-0.640416 8:-0.917041 
-0 -2048 1:-0.655227 2:-0.557472 3:-0.843738 4:-0.580113 5:-0.637725 6:-0.750398 7:-0.914007 8:-0.681716 
-0 -2048 1:-0.630932 2:-0.739514 3:-0.769205 4:-0.727727 5:-0.675714 6:-0.816949 7:-0.805201 8:-0.858844 
-0 -2048 1:-0.608413 2:-0.578952 3:-0.815853 4:-0.535921 5:-0.662587 6:-0.71361 7:-0.843351 8:-0.737526 
-0 -2048 1:-0.601134 2:-0.591252 3:-0.895125 4:-0.61917 5:-0.817859 6:-0.808858 7:-0.886009 8:-0.824814 
-0 -2048 1:-0.335859 2:-0.473758 3:-0.687797 4:-0.453703 5:-0.536631 6:-0.501797 7:-0.935801 8:-0.356072 
-0 -2048 1:-0.53291 2:-0.339184 3:-0.937441 4:-0.297298 5:-0.538953 6:-0.49515 7:-0.9667 8:-0.311626 
-0 -2048 1:-0.676226 2:-0.759911 3:-0.80173 4:-0.684226 5:-0.62088 6:-0.748582 7:-0.749276 8:-0.805028 
-0 -2048 1:-0.67351 2:-0.702731 3:-0.885858 4:-0.612299 5:-0.810077 6:-0.86869 7:-0.930845 8:-0.840941 
-0 -2048 1:-0.693079 2:-0.357617 3:-0.948118 4:-0.420495 5:-0.767432 6:-0.885687 7:-0.853635 8:-0.895083 
-0 -2048 1:-0.645815 2:-0.629115 3:-0.889404 4:-0.580345 5:-0.718326 6:-0.872413 7:-0.863984 8:-0.86181 
-0 -2048 1:-0.684503 2:-0.714976 3:-0.784213 4:-0.753117 5:-0.814811 6:-0.849027 7:-0.952044 8:-0.818358 
-2048 -0 1:-0.242531 2:-0.650846 3:0.0293349 4:-1 5:-0.484904 6:-0.817059 7:-0.460645 8:-1 
-0 -2048 1:-0.583911 2:-0.62432 3:-0.803951 4:-0.662981 5:-0.641188 6:-0.822267 7:-0.898072 8:-0.826437 
